digraph Tree {
node [shape=box, style="filled, rounded", color="black", fontname=helvetica] ;
edge [fontname=helvetica] ;
0 [label="Costco <= 0.0\nentropy = 0.99\nsamples = 1556\nvalue = [1975, 1521]\nclass = red", fillcolor="#f9e2d1"] ;
1 [label="TractorSupply <= 0.0\nentropy = 0.95\nsamples = 1414\nvalue = [1890, 1083]\nclass = red", fillcolor="#f4c9aa"] ;
0 -> 1 [labeldistance=2.5, labelangle=45, headlabel="True"] ;
2 [label="Starbucks <= 0.0\nentropy = 0.97\nsamples = 983\nvalue = [1278, 876]\nclass = red", fillcolor="#f7d7c1"] ;
1 -> 2 ;
3 [label="Target <= 0.0\nentropy = 0.9\nsamples = 754\nvalue = [1037, 480]\nclass = red", fillcolor="#f1bb95"] ;
2 -> 3 ;
4 [label="HobbyLobby <= 0.0\nentropy = 0.89\nsamples = 731\nvalue = [1014, 450]\nclass = red", fillcolor="#f1b991"] ;
3 -> 4 ;
5 [label="entropy = 0.9\nsamples = 711\nvalue = [976, 450]\nclass = red", fillcolor="#f1bb94"] ;
4 -> 5 ;
6 [label="entropy = 0.0\nsamples = 20\nvalue = [38, 0]\nclass = red", fillcolor="#e58139"] ;
4 -> 6 ;
7 [label="Starbucks <= 0.0\nentropy = 0.99\nsamples = 23\nvalue = [23, 30]\nclass = blue", fillcolor="#d1e8f9"] ;
3 -> 7 ;
8 [label="entropy = 1.0\nsamples = 18\nvalue = [19, 18]\nclass = red", fillcolor="#fef8f5"] ;
7 -> 8 ;
9 [label="entropy = 0.81\nsamples = 5\nvalue = [4, 12]\nclass = blue", fillcolor="#7bbeee"] ;
7 -> 9 ;
10 [label="TractorSupply <= 0.0\nentropy = 0.96\nsamples = 229\nvalue = [241, 396]\nclass = blue", fillcolor="#b2d9f5"] ;
2 -> 10 ;
11 [label="Walmart <= 0.0\nentropy = 0.86\nsamples = 120\nvalue = [104, 261]\nclass = blue", fillcolor="#88c4ef"] ;
10 -> 11 ;
12 [label="entropy = 0.78\nsamples = 99\nvalue = [74, 249]\nclass = blue", fillcolor="#74baed"] ;
11 -> 12 ;
13 [label="entropy = 0.86\nsamples = 21\nvalue = [30, 12]\nclass = red", fillcolor="#efb388"] ;
11 -> 13 ;
14 [label="TraderJoes <= 0.0\nentropy = 1.0\nsamples = 109\nvalue = [137, 135]\nclass = red", fillcolor="#fffdfc"] ;
10 -> 14 ;
15 [label="entropy = 0.99\nsamples = 102\nvalue = [134, 108]\nclass = red", fillcolor="#fae7d9"] ;
14 -> 15 ;
16 [label="entropy = 0.47\nsamples = 7\nvalue = [3, 27]\nclass = blue", fillcolor="#4fa8e8"] ;
14 -> 16 ;
17 [label="DollarTree <= 0.0\nentropy = 0.82\nsamples = 431\nvalue = [612, 207]\nclass = red", fillcolor="#eeac7c"] ;
1 -> 17 ;
18 [label="TractorSupply <= 0.0\nentropy = 0.74\nsamples = 315\nvalue = [458, 120]\nclass = red", fillcolor="#eca26d"] ;
17 -> 18 ;
19 [label="Target <= 0.0\nentropy = 0.69\nsamples = 296\nvalue = [436, 99]\nclass = red", fillcolor="#eb9e66"] ;
18 -> 19 ;
20 [label="entropy = 0.68\nsamples = 291\nvalue = [431, 96]\nclass = red", fillcolor="#eb9d65"] ;
19 -> 20 ;
21 [label="entropy = 0.95\nsamples = 5\nvalue = [5, 3]\nclass = red", fillcolor="#f5cdb0"] ;
19 -> 21 ;
22 [label="TractorSupply <= 0.0\nentropy = 1.0\nsamples = 19\nvalue = [22, 21]\nclass = red", fillcolor="#fef9f6"] ;
18 -> 22 ;
23 [label="entropy = 0.59\nsamples = 5\nvalue = [3, 18]\nclass = blue", fillcolor="#5aade9"] ;
22 -> 23 ;
24 [label="entropy = 0.57\nsamples = 14\nvalue = [19, 3]\nclass = red", fillcolor="#e99558"] ;
22 -> 24 ;
25 [label="DollarTree <= 0.0\nentropy = 0.94\nsamples = 116\nvalue = [154, 87]\nclass = red", fillcolor="#f4c8a9"] ;
17 -> 25 ;
26 [label="DollarTree <= 0.0\nentropy = 0.98\nsamples = 95\nvalue = [121, 87]\nclass = red", fillcolor="#f8dcc7"] ;
25 -> 26 ;
27 [label="entropy = 0.59\nsamples = 5\nvalue = [3, 18]\nclass = blue", fillcolor="#5aade9"] ;
26 -> 27 ;
28 [label="entropy = 0.95\nsamples = 90\nvalue = [118, 69]\nclass = red", fillcolor="#f4cbad"] ;
26 -> 28 ;
29 [label="entropy = 0.0\nsamples = 21\nvalue = [33, 0]\nclass = red", fillcolor="#e58139"] ;
25 -> 29 ;
30 [label="TraderJoes <= 0.0\nentropy = 0.64\nsamples = 142\nvalue = [85, 438]\nclass = blue", fillcolor="#5fb0ea"] ;
0 -> 30 [labeldistance=2.5, labelangle=-45, headlabel="False"] ;
31 [label="Starbucks <= 0.0\nentropy = 0.92\nsamples = 59\nvalue = [58, 114]\nclass = blue", fillcolor="#9ecff2"] ;
30 -> 31 ;
32 [label="entropy = 0.0\nsamples = 5\nvalue = [12, 0]\nclass = red", fillcolor="#e58139"] ;
31 -> 32 ;
33 [label="HobbyLobby <= 0.0\nentropy = 0.87\nsamples = 54\nvalue = [46, 114]\nclass = blue", fillcolor="#89c5ef"] ;
31 -> 33 ;
34 [label="Starbucks <= 0.0\nentropy = 0.43\nsamples = 17\nvalue = [6, 63]\nclass = blue", fillcolor="#4ca6e7"] ;
33 -> 34 ;
35 [label="entropy = 0.52\nsamples = 8\nvalue = [4, 30]\nclass = blue", fillcolor="#53aae8"] ;
34 -> 35 ;
36 [label="entropy = 0.32\nsamples = 9\nvalue = [2, 33]\nclass = blue", fillcolor="#45a3e7"] ;
34 -> 36 ;
37 [label="TractorSupply <= 0.0\nentropy = 0.99\nsamples = 37\nvalue = [40, 51]\nclass = blue", fillcolor="#d4eaf9"] ;
33 -> 37 ;
38 [label="entropy = 0.56\nsamples = 11\nvalue = [5, 33]\nclass = blue", fillcolor="#57ace9"] ;
37 -> 38 ;
39 [label="entropy = 0.92\nsamples = 26\nvalue = [35, 18]\nclass = red", fillcolor="#f2c29f"] ;
37 -> 39 ;
40 [label="HobbyLobby <= 0.0\nentropy = 0.39\nsamples = 83\nvalue = [27, 324]\nclass = blue", fillcolor="#49a5e7"] ;
30 -> 40 ;
41 [label="HM <= 0.0\nentropy = 0.21\nsamples = 59\nvalue = [9, 264]\nclass = blue", fillcolor="#40a0e6"] ;
40 -> 41 ;
42 [label="TractorSupply <= 0.0\nentropy = 0.15\nsamples = 53\nvalue = [5, 237]\nclass = blue", fillcolor="#3d9fe6"] ;
41 -> 42 ;
43 [label="entropy = 0.0\nsamples = 29\nvalue = [0, 132]\nclass = blue", fillcolor="#399de5"] ;
42 -> 43 ;
44 [label="entropy = 0.27\nsamples = 24\nvalue = [5, 105]\nclass = blue", fillcolor="#42a2e6"] ;
42 -> 44 ;
45 [label="entropy = 0.55\nsamples = 6\nvalue = [4, 27]\nclass = blue", fillcolor="#56ace9"] ;
41 -> 45 ;
46 [label="Starbucks <= 0.0\nentropy = 0.78\nsamples = 24\nvalue = [18, 60]\nclass = blue", fillcolor="#74baed"] ;
40 -> 46 ;
47 [label="entropy = 0.45\nsamples = 11\nvalue = [4, 39]\nclass = blue", fillcolor="#4da7e8"] ;
46 -> 47 ;
48 [label="entropy = 0.97\nsamples = 13\nvalue = [14, 21]\nclass = blue", fillcolor="#bddef6"] ;
46 -> 48 ;
}