digraph Tree {
node [shape=box, style="filled, rounded", color="black", fontname=helvetica] ;
edge [fontname=helvetica] ;
0 [label="HM <= 0.0\nentropy = 1.0\nsamples = 1563\nvalue = [1256.46, 1175.68]\nclass = red", fillcolor="#fdf7f2"] ;
1 [label="WholeFoods <= 0.0\nentropy = 0.97\nsamples = 1418\nvalue = [1207.61, 796.85]\nclass = red", fillcolor="#f6d4bc"] ;
0 -> 1 [labeldistance=2.5, labelangle=45, headlabel="True"] ;
2 [label="Costco <= 0.0\nentropy = 0.96\nsamples = 1390\nvalue = [1195.24, 741.99]\nclass = red", fillcolor="#f5cfb4"] ;
1 -> 2 ;
3 [label="Starbucks <= 0.0\nentropy = 0.95\nsamples = 1357\nvalue = [1174.22, 689.73]\nclass = red", fillcolor="#f4cbad"] ;
2 -> 3 ;
4 [label="DollarTree <= 0.0\nentropy = 0.92\nsamples = 1111\nvalue = [983.15, 488.56]\nclass = red", fillcolor="#f2c09b"] ;
3 -> 4 ;
5 [label="Walmart <= 0.0\nentropy = 0.86\nsamples = 805\nvalue = [732.73, 292.61]\nclass = red", fillcolor="#efb388"] ;
4 -> 5 ;
6 [label="Walmart <= 0.0\nentropy = 0.9\nsamples = 598\nvalue = [544.14, 250.81]\nclass = red", fillcolor="#f1bb94"] ;
5 -> 6 ;
7 [label="entropy = 0.89\nsamples = 593\nvalue = [542.28, 237.75]\nclass = red", fillcolor="#f0b890"] ;
6 -> 7 ;
8 [label="entropy = 0.54\nsamples = 5\nvalue = [1.86, 13.06]\nclass = blue", fillcolor="#55abe9"] ;
6 -> 8 ;
9 [label="Starbucks <= 0.0\nentropy = 0.68\nsamples = 207\nvalue = [188.59, 41.8]\nclass = red", fillcolor="#eb9d65"] ;
5 -> 9 ;
10 [label="entropy = 0.73\nsamples = 183\nvalue = [160.77, 41.8]\nclass = red", fillcolor="#eca26c"] ;
9 -> 10 ;
11 [label="entropy = 0.0\nsamples = 24\nvalue = [27.83, 0.0]\nclass = red", fillcolor="#e58139"] ;
9 -> 11 ;
12 [label="Walmart <= 0.0\nentropy = 0.99\nsamples = 306\nvalue = [250.43, 195.95]\nclass = red", fillcolor="#f9e4d4"] ;
4 -> 12 ;
13 [label="TractorSupply <= 0.0\nentropy = 0.92\nsamples = 53\nvalue = [37.1, 73.15]\nclass = blue", fillcolor="#9dcff2"] ;
12 -> 13 ;
14 [label="entropy = 0.89\nsamples = 49\nvalue = [32.77, 73.15]\nclass = blue", fillcolor="#92c9f1"] ;
13 -> 14 ;
15 [label="entropy = 0.0\nsamples = 4\nvalue = [4.33, 0.0]\nclass = red", fillcolor="#e58139"] ;
13 -> 15 ;
16 [label="DollarTree <= 0.0\nentropy = 0.95\nsamples = 253\nvalue = [213.33, 122.79]\nclass = red", fillcolor="#f4caab"] ;
12 -> 16 ;
17 [label="entropy = 0.97\nsamples = 214\nvalue = [178.7, 120.18]\nclass = red", fillcolor="#f6d6be"] ;
16 -> 17 ;
18 [label="entropy = 0.37\nsamples = 39\nvalue = [34.63, 2.61]\nclass = red", fillcolor="#e78b48"] ;
16 -> 18 ;
19 [label="Starbucks <= 0.0\nentropy = 1.0\nsamples = 246\nvalue = [191.07, 201.17]\nclass = blue", fillcolor="#f5fafe"] ;
3 -> 19 ;
20 [label="Starbucks <= 0.0\nentropy = 1.0\nsamples = 234\nvalue = [187.36, 177.66]\nclass = red", fillcolor="#fef8f5"] ;
19 -> 20 ;
21 [label="Walmart <= 0.0\nentropy = 1.0\nsamples = 231\nvalue = [181.79, 177.66]\nclass = red", fillcolor="#fefcfa"] ;
20 -> 21 ;
22 [label="entropy = 0.92\nsamples = 72\nvalue = [49.47, 99.28]\nclass = blue", fillcolor="#9ccef2"] ;
21 -> 22 ;
23 [label="entropy = 0.95\nsamples = 159\nvalue = [132.32, 78.38]\nclass = red", fillcolor="#f4ccae"] ;
21 -> 23 ;
24 [label="entropy = 0.0\nsamples = 3\nvalue = [5.57, 0.0]\nclass = red", fillcolor="#e58139"] ;
20 -> 24 ;
25 [label="Starbucks <= 0.0\nentropy = 0.57\nsamples = 12\nvalue = [3.71, 23.51]\nclass = blue", fillcolor="#58ace9"] ;
19 -> 25 ;
26 [label="entropy = 0.27\nsamples = 4\nvalue = [0.62, 13.06]\nclass = blue", fillcolor="#42a2e6"] ;
25 -> 26 ;
27 [label="entropy = 0.78\nsamples = 8\nvalue = [3.09, 10.45]\nclass = blue", fillcolor="#74baed"] ;
25 -> 27 ;
28 [label="HobbyLobby <= 0.0\nentropy = 0.86\nsamples = 33\nvalue = [21.02, 52.25]\nclass = blue", fillcolor="#89c4ef"] ;
2 -> 28 ;
29 [label="Starbucks <= 0.0\nentropy = 0.68\nsamples = 17\nvalue = [8.66, 39.19]\nclass = blue", fillcolor="#65b3eb"] ;
28 -> 29 ;
30 [label="Costco <= 0.0\nentropy = 0.83\nsamples = 7\nvalue = [7.42, 2.61]\nclass = red", fillcolor="#eead7f"] ;
29 -> 30 ;
31 [label="entropy = 0.99\nsamples = 3\nvalue = [3.09, 2.61]\nclass = red", fillcolor="#fbebe0"] ;
30 -> 31 ;
32 [label="entropy = -0.0\nsamples = 4\nvalue = [4.33, 0.0]\nclass = red", fillcolor="#e58139"] ;
30 -> 32 ;
33 [label="Walmart <= 0.0\nentropy = 0.21\nsamples = 10\nvalue = [1.24, 36.58]\nclass = blue", fillcolor="#40a0e6"] ;
29 -> 33 ;
34 [label="entropy = 0.42\nsamples = 4\nvalue = [1.24, 13.06]\nclass = blue", fillcolor="#4ca6e7"] ;
33 -> 34 ;
35 [label="entropy = 0.0\nsamples = 6\nvalue = [0.0, 23.51]\nclass = blue", fillcolor="#399de5"] ;
33 -> 35 ;
36 [label="HobbyLobby <= 0.0\nentropy = 1.0\nsamples = 16\nvalue = [12.37, 13.06]\nclass = blue", fillcolor="#f4fafe"] ;
28 -> 36 ;
37 [label="entropy = 0.0\nsamples = 4\nvalue = [4.33, 0.0]\nclass = red", fillcolor="#e58139"] ;
36 -> 37 ;
38 [label="DollarTree <= 0.0\nentropy = 0.96\nsamples = 12\nvalue = [8.04, 13.06]\nclass = blue", fillcolor="#b3d9f5"] ;
36 -> 38 ;
39 [label="Walmart <= 0.0\nentropy = 0.85\nsamples = 9\nvalue = [4.95, 13.06]\nclass = blue", fillcolor="#84c2ef"] ;
38 -> 39 ;
40 [label="entropy = 0.42\nsamples = 6\nvalue = [1.24, 13.06]\nclass = blue", fillcolor="#4ca6e7"] ;
39 -> 40 ;
41 [label="entropy = -0.0\nsamples = 3\nvalue = [3.71, 0.0]\nclass = red", fillcolor="#e58139"] ;
39 -> 41 ;
42 [label="entropy = -0.0\nsamples = 3\nvalue = [3.09, 0.0]\nclass = red", fillcolor="#e58139"] ;
38 -> 42 ;
43 [label="HobbyLobby <= 0.0\nentropy = 0.69\nsamples = 28\nvalue = [12.37, 54.87]\nclass = blue", fillcolor="#66b3eb"] ;
1 -> 43 ;
44 [label="Starbucks <= 0.0\nentropy = 0.5\nsamples = 21\nvalue = [6.8, 54.87]\nclass = blue", fillcolor="#52a9e8"] ;
43 -> 44 ;
45 [label="entropy = 0.0\nsamples = 4\nvalue = [3.09, 0.0]\nclass = red", fillcolor="#e58139"] ;
44 -> 45 ;
46 [label="TraderJoes <= 0.0\nentropy = 0.34\nsamples = 17\nvalue = [3.71, 54.87]\nclass = blue", fillcolor="#46a4e7"] ;
44 -> 46 ;
47 [label="Target <= 0.0\nentropy = 0.7\nsamples = 6\nvalue = [3.71, 15.68]\nclass = blue", fillcolor="#68b4eb"] ;
46 -> 47 ;
48 [label="entropy = 0.61\nsamples = 3\nvalue = [1.86, 10.45]\nclass = blue", fillcolor="#5caeea"] ;
47 -> 48 ;
49 [label="entropy = 0.83\nsamples = 3\nvalue = [1.86, 5.23]\nclass = blue", fillcolor="#7fc0ee"] ;
47 -> 49 ;
50 [label="entropy = -0.0\nsamples = 11\nvalue = [0.0, 39.19]\nclass = blue", fillcolor="#399de5"] ;
46 -> 50 ;
51 [label="entropy = -0.0\nsamples = 7\nvalue = [5.57, 0.0]\nclass = red", fillcolor="#e58139"] ;
43 -> 51 ;
52 [label="TractorSupply <= 0.0\nentropy = 0.51\nsamples = 145\nvalue = [48.85, 378.83]\nclass = blue", fillcolor="#53aae8"] ;
0 -> 52 [labeldistance=2.5, labelangle=-45, headlabel="False"] ;
53 [label="Walmart <= 0.0\nentropy = 0.3\nsamples = 88\nvalue = [16.7, 295.23]\nclass = blue", fillcolor="#44a3e6"] ;
52 -> 53 ;
54 [label="DollarTree <= 0.0\nentropy = 0.23\nsamples = 84\nvalue = [11.75, 295.23]\nclass = blue", fillcolor="#41a1e6"] ;
53 -> 54 ;
55 [label="TraderJoes <= 0.0\nentropy = 0.07\nsamples = 33\nvalue = [1.24, 135.86]\nclass = blue", fillcolor="#3b9ee5"] ;
54 -> 55 ;
56 [label="DollarTree <= 0.0\nentropy = 0.19\nsamples = 13\nvalue = [1.24, 41.8]\nclass = blue", fillcolor="#3fa0e6"] ;
55 -> 56 ;
57 [label="TraderJoes <= 0.0\nentropy = 0.29\nsamples = 9\nvalue = [1.24, 23.51]\nclass = blue", fillcolor="#43a2e6"] ;
56 -> 57 ;
58 [label="entropy = 0.0\nsamples = 6\nvalue = [0.0, 20.9]\nclass = blue", fillcolor="#399de5"] ;
57 -> 58 ;
59 [label="entropy = 0.91\nsamples = 3\nvalue = [1.24, 2.61]\nclass = blue", fillcolor="#97cbf1"] ;
57 -> 59 ;
60 [label="entropy = 0.0\nsamples = 4\nvalue = [0.0, 18.29]\nclass = blue", fillcolor="#399de5"] ;
56 -> 60 ;
61 [label="entropy = 0.0\nsamples = 20\nvalue = [0.0, 94.05]\nclass = blue", fillcolor="#399de5"] ;
55 -> 61 ;
62 [label="Costco <= 0.0\nentropy = 0.33\nsamples = 51\nvalue = [10.51, 159.37]\nclass = blue", fillcolor="#46a3e7"] ;
54 -> 62 ;
63 [label="HobbyLobby <= 0.0\nentropy = 0.21\nsamples = 41\nvalue = [4.95, 143.69]\nclass = blue", fillcolor="#40a0e6"] ;
62 -> 63 ;
64 [label="HM <= 0.0\nentropy = 0.07\nsamples = 19\nvalue = [0.62, 78.38]\nclass = blue", fillcolor="#3b9ee5"] ;
63 -> 64 ;
65 [label="entropy = 0.23\nsamples = 4\nvalue = [0.62, 15.68]\nclass = blue", fillcolor="#41a1e6"] ;
64 -> 65 ;
66 [label="entropy = 0.0\nsamples = 15\nvalue = [0.0, 62.7]\nclass = blue", fillcolor="#399de5"] ;
64 -> 66 ;
67 [label="WholeFoods <= 0.0\nentropy = 0.34\nsamples = 22\nvalue = [4.33, 65.32]\nclass = blue", fillcolor="#46a3e7"] ;
63 -> 67 ;
68 [label="entropy = 0.53\nsamples = 14\nvalue = [4.33, 31.35]\nclass = blue", fillcolor="#54abe9"] ;
67 -> 68 ;
69 [label="entropy = 0.0\nsamples = 8\nvalue = [0.0, 33.96]\nclass = blue", fillcolor="#399de5"] ;
67 -> 69 ;
70 [label="Costco <= 0.0\nentropy = 0.83\nsamples = 10\nvalue = [5.57, 15.68]\nclass = blue", fillcolor="#7fc0ee"] ;
62 -> 70 ;
71 [label="entropy = 0.0\nsamples = 4\nvalue = [3.71, 0.0]\nclass = red", fillcolor="#e58139"] ;
70 -> 71 ;
72 [label="DollarTree <= 0.0\nentropy = 0.49\nsamples = 6\nvalue = [1.86, 15.68]\nclass = blue", fillcolor="#50a9e8"] ;
70 -> 72 ;
73 [label="entropy = 0.0\nsamples = 3\nvalue = [0.0, 10.45]\nclass = blue", fillcolor="#399de5"] ;
72 -> 73 ;
74 [label="entropy = 0.83\nsamples = 3\nvalue = [1.86, 5.23]\nclass = blue", fillcolor="#7fc0ee"] ;
72 -> 74 ;
75 [label="entropy = 0.0\nsamples = 4\nvalue = [4.95, 0.0]\nclass = red", fillcolor="#e58139"] ;
53 -> 75 ;
76 [label="TraderJoes <= 0.0\nentropy = 0.85\nsamples = 57\nvalue = [32.15, 83.6]\nclass = blue", fillcolor="#85c3ef"] ;
52 -> 76 ;
77 [label="Walmart <= 0.0\nentropy = 0.98\nsamples = 43\nvalue = [29.06, 41.8]\nclass = blue", fillcolor="#c3e1f7"] ;
76 -> 77 ;
78 [label="Target <= 0.0\nentropy = 0.93\nsamples = 35\nvalue = [21.64, 41.8]\nclass = blue", fillcolor="#a0d0f2"] ;
77 -> 78 ;
79 [label="HM <= 0.0\nentropy = 0.67\nsamples = 14\nvalue = [6.18, 28.74]\nclass = blue", fillcolor="#64b2eb"] ;
78 -> 79 ;
80 [label="entropy = 0.0\nsamples = 3\nvalue = [2.47, 0.0]\nclass = red", fillcolor="#e58139"] ;
79 -> 80 ;
81 [label="TractorSupply <= 0.0\nentropy = 0.51\nsamples = 11\nvalue = [3.71, 28.74]\nclass = blue", fillcolor="#53aae8"] ;
79 -> 81 ;
82 [label="entropy = 0.98\nsamples = 4\nvalue = [1.86, 2.61]\nclass = blue", fillcolor="#c6e3f7"] ;
81 -> 82 ;
83 [label="entropy = 0.35\nsamples = 7\nvalue = [1.86, 26.13]\nclass = blue", fillcolor="#47a4e7"] ;
81 -> 83 ;
84 [label="DollarTree <= 0.0\nentropy = 0.99\nsamples = 21\nvalue = [15.46, 13.06]\nclass = red", fillcolor="#fbebe0"] ;
78 -> 84 ;
85 [label="TractorSupply <= 0.0\nentropy = 0.93\nsamples = 12\nvalue = [6.8, 13.06]\nclass = blue", fillcolor="#a0d0f3"] ;
84 -> 85 ;
86 [label="entropy = 0.0\nsamples = 3\nvalue = [1.86, 0.0]\nclass = red", fillcolor="#e58139"] ;
85 -> 86 ;
87 [label="entropy = 0.85\nsamples = 9\nvalue = [4.95, 13.06]\nclass = blue", fillcolor="#84c2ef"] ;
85 -> 87 ;
88 [label="entropy = -0.0\nsamples = 9\nvalue = [8.66, 0.0]\nclass = red", fillcolor="#e58139"] ;
84 -> 88 ;
89 [label="entropy = 0.0\nsamples = 8\nvalue = [7.42, 0.0]\nclass = red", fillcolor="#e58139"] ;
77 -> 89 ;
90 [label="HM <= 0.0\nentropy = 0.36\nsamples = 14\nvalue = [3.09, 41.8]\nclass = blue", fillcolor="#48a4e7"] ;
76 -> 90 ;
91 [label="HobbyLobby <= 0.0\nentropy = 0.2\nsamples = 11\nvalue = [1.24, 39.19]\nclass = blue", fillcolor="#3fa0e6"] ;
90 -> 91 ;
92 [label="WholeFoods <= 0.0\nentropy = 0.34\nsamples = 6\nvalue = [1.24, 18.29]\nclass = blue", fillcolor="#46a4e7"] ;
91 -> 92 ;
93 [label="entropy = 0.7\nsamples = 3\nvalue = [1.24, 5.23]\nclass = blue", fillcolor="#68b4eb"] ;
92 -> 93 ;
94 [label="entropy = 0.0\nsamples = 3\nvalue = [0.0, 13.06]\nclass = blue", fillcolor="#399de5"] ;
92 -> 94 ;
95 [label="entropy = 0.0\nsamples = 5\nvalue = [0.0, 20.9]\nclass = blue", fillcolor="#399de5"] ;
91 -> 95 ;
96 [label="entropy = 0.98\nsamples = 3\nvalue = [1.86, 2.61]\nclass = blue", fillcolor="#c6e3f7"] ;
90 -> 96 ;
}