digraph Tree {
node [shape=box] ;
0 [label="Costco <= 0.0\nentropy = 0.988\nsamples = 1556\nvalue = [1975, 1521]\nclass = blue"] ;
1 [label="TractorSupply <= 0.0\nentropy = 0.946\nsamples = 1414\nvalue = [1890, 1083]\nclass = blue"] ;
0 -> 1 [labeldistance=2.5, labelangle=45, headlabel="True"] ;
2 [label="Starbucks <= 0.0\nentropy = 0.975\nsamples = 983\nvalue = [1278, 876]\nclass = blue"] ;
1 -> 2 ;
3 [label="Target <= 0.0\nentropy = 0.9\nsamples = 754\nvalue = [1037, 480]\nclass = blue"] ;
2 -> 3 ;
4 [label="HobbyLobby <= 0.0\nentropy = 0.89\nsamples = 731\nvalue = [1014, 450]\nclass = blue"] ;
3 -> 4 ;
5 [label="entropy = 0.899\nsamples = 711\nvalue = [976, 450]\nclass = blue"] ;
4 -> 5 ;
6 [label="entropy = 0.0\nsamples = 20\nvalue = [38, 0]\nclass = blue"] ;
4 -> 6 ;
7 [label="Starbucks <= 0.0\nentropy = 0.987\nsamples = 23\nvalue = [23, 30]\nclass = red"] ;
3 -> 7 ;
8 [label="entropy = 0.999\nsamples = 18\nvalue = [19, 18]\nclass = blue"] ;
7 -> 8 ;
9 [label="entropy = 0.811\nsamples = 5\nvalue = [4, 12]\nclass = red"] ;
7 -> 9 ;
10 [label="TractorSupply <= 0.0\nentropy = 0.957\nsamples = 229\nvalue = [241, 396]\nclass = red"] ;
2 -> 10 ;
11 [label="Walmart <= 0.0\nentropy = 0.862\nsamples = 120\nvalue = [104, 261]\nclass = red"] ;
10 -> 11 ;
12 [label="entropy = 0.776\nsamples = 99\nvalue = [74, 249]\nclass = red"] ;
11 -> 12 ;
13 [label="entropy = 0.863\nsamples = 21\nvalue = [30, 12]\nclass = blue"] ;
11 -> 13 ;
14 [label="TraderJoes <= 0.0\nentropy = 1.0\nsamples = 109\nvalue = [137, 135]\nclass = blue"] ;
10 -> 14 ;
15 [label="entropy = 0.992\nsamples = 102\nvalue = [134, 108]\nclass = blue"] ;
14 -> 15 ;
16 [label="entropy = 0.469\nsamples = 7\nvalue = [3, 27]\nclass = red"] ;
14 -> 16 ;
17 [label="DollarTree <= 0.0\nentropy = 0.816\nsamples = 431\nvalue = [612, 207]\nclass = blue"] ;
1 -> 17 ;
18 [label="TractorSupply <= 0.0\nentropy = 0.737\nsamples = 315\nvalue = [458, 120]\nclass = blue"] ;
17 -> 18 ;
19 [label="Target <= 0.0\nentropy = 0.691\nsamples = 296\nvalue = [436, 99]\nclass = blue"] ;
18 -> 19 ;
20 [label="entropy = 0.685\nsamples = 291\nvalue = [431, 96]\nclass = blue"] ;
19 -> 20 ;
21 [label="entropy = 0.954\nsamples = 5\nvalue = [5, 3]\nclass = blue"] ;
19 -> 21 ;
22 [label="TractorSupply <= 0.0\nentropy = 1.0\nsamples = 19\nvalue = [22, 21]\nclass = blue"] ;
18 -> 22 ;
23 [label="entropy = 0.592\nsamples = 5\nvalue = [3, 18]\nclass = red"] ;
22 -> 23 ;
24 [label="entropy = 0.575\nsamples = 14\nvalue = [19, 3]\nclass = blue"] ;
22 -> 24 ;
25 [label="DollarTree <= 0.0\nentropy = 0.944\nsamples = 116\nvalue = [154, 87]\nclass = blue"] ;
17 -> 25 ;
26 [label="DollarTree <= 0.0\nentropy = 0.981\nsamples = 95\nvalue = [121, 87]\nclass = blue"] ;
25 -> 26 ;
27 [label="entropy = 0.592\nsamples = 5\nvalue = [3, 18]\nclass = red"] ;
26 -> 27 ;
28 [label="entropy = 0.95\nsamples = 90\nvalue = [118, 69]\nclass = blue"] ;
26 -> 28 ;
29 [label="entropy = 0.0\nsamples = 21\nvalue = [33, 0]\nclass = blue"] ;
25 -> 29 ;
30 [label="TraderJoes <= 0.0\nentropy = 0.64\nsamples = 142\nvalue = [85, 438]\nclass = red"] ;
0 -> 30 [labeldistance=2.5, labelangle=-45, headlabel="False"] ;
31 [label="Starbucks <= 0.0\nentropy = 0.922\nsamples = 59\nvalue = [58, 114]\nclass = red"] ;
30 -> 31 ;
32 [label="entropy = 0.0\nsamples = 5\nvalue = [12, 0]\nclass = blue"] ;
31 -> 32 ;
33 [label="HobbyLobby <= 0.0\nentropy = 0.865\nsamples = 54\nvalue = [46, 114]\nclass = red"] ;
31 -> 33 ;
34 [label="Starbucks <= 0.0\nentropy = 0.426\nsamples = 17\nvalue = [6, 63]\nclass = red"] ;
33 -> 34 ;
35 [label="entropy = 0.523\nsamples = 8\nvalue = [4, 30]\nclass = red"] ;
34 -> 35 ;
36 [label="entropy = 0.316\nsamples = 9\nvalue = [2, 33]\nclass = red"] ;
34 -> 36 ;
37 [label="TractorSupply <= 0.0\nentropy = 0.989\nsamples = 37\nvalue = [40, 51]\nclass = red"] ;
33 -> 37 ;
38 [label="entropy = 0.562\nsamples = 11\nvalue = [5, 33]\nclass = red"] ;
37 -> 38 ;
39 [label="entropy = 0.924\nsamples = 26\nvalue = [35, 18]\nclass = blue"] ;
37 -> 39 ;
40 [label="HobbyLobby <= 0.0\nentropy = 0.391\nsamples = 83\nvalue = [27, 324]\nclass = red"] ;
30 -> 40 ;
41 [label="HM <= 0.0\nentropy = 0.209\nsamples = 59\nvalue = [9, 264]\nclass = red"] ;
40 -> 41 ;
42 [label="TractorSupply <= 0.0\nentropy = 0.145\nsamples = 53\nvalue = [5, 237]\nclass = red"] ;
41 -> 42 ;
43 [label="entropy = 0.0\nsamples = 29\nvalue = [0, 132]\nclass = red"] ;
42 -> 43 ;
44 [label="entropy = 0.267\nsamples = 24\nvalue = [5, 105]\nclass = red"] ;
42 -> 44 ;
45 [label="entropy = 0.555\nsamples = 6\nvalue = [4, 27]\nclass = red"] ;
41 -> 45 ;
46 [label="Starbucks <= 0.0\nentropy = 0.779\nsamples = 24\nvalue = [18, 60]\nclass = red"] ;
40 -> 46 ;
47 [label="entropy = 0.446\nsamples = 11\nvalue = [4, 39]\nclass = red"] ;
46 -> 47 ;
48 [label="entropy = 0.971\nsamples = 13\nvalue = [14, 21]\nclass = red"] ;
46 -> 48 ;
}